Language model created by QuickLM on Fri Nov 25 11:34:34 EST 2022
Copyright (c) 1996-2010 Carnegie Mellon University and Alexander I. Rudnicky

The model is in standard ARPA format, designed by Doug Paul while he was at MITRE.

The code that was used to produce this language model is available in Open Source.
Please visit http://www.speech.cs.cmu.edu/tools/ for more information

The (fixed) discount mass is 0.5. The backoffs are computed using the ratio method.
This model based on a corpus of 5 sentences and 7 words

\data\
ngram 1=7
ngram 2=10
ngram 3=9

\1-grams:
-0.8808 </s> -0.3010
-0.8808 <s> -0.2398
-1.2788 CLOSE -0.2527
-1.2788 GOOGLE -0.2398
-1.2788 OPEN -0.2527
-1.5798 SHUTDOWN -0.2398
-1.2788 YOUTUBE -0.2398

\2-grams:
-0.6990 <s> CLOSE 0.0000
-0.6990 <s> OPEN 0.0000
-1.0000 <s> SHUTDOWN 0.0000
-0.6021 CLOSE GOOGLE 0.0000
-0.6021 CLOSE YOUTUBE 0.0000
-0.3010 GOOGLE </s> -0.3010
-0.6021 OPEN GOOGLE 0.0000
-0.6021 OPEN YOUTUBE 0.0000
-0.3010 SHUTDOWN </s> -0.3010
-0.3010 YOUTUBE </s> -0.3010

\3-grams:
-0.6021 <s> CLOSE GOOGLE
-0.6021 <s> CLOSE YOUTUBE
-0.6021 <s> OPEN GOOGLE
-0.6021 <s> OPEN YOUTUBE
-0.3010 <s> SHUTDOWN </s>
-0.3010 CLOSE GOOGLE </s>
-0.3010 CLOSE YOUTUBE </s>
-0.3010 OPEN GOOGLE </s>
-0.3010 OPEN YOUTUBE </s>

\end\
