Language model created by QuickLM on Sat Nov 26 02:54:11 EST 2022
Copyright (c) 1996-2010 Carnegie Mellon University and Alexander I. Rudnicky

The model is in standard ARPA format, designed by Doug Paul while he was at MITRE.

The code that was used to produce this language model is available in Open Source.
Please visit http://www.speech.cs.cmu.edu/tools/ for more information

The (fixed) discount mass is 0.5. The backoffs are computed using the ratio method.
This model based on a corpus of 8 sentences and 11 words

\data\
ngram 1=11
ngram 2=17
ngram 3=9

\1-grams:
-0.7959 </s> -0.3010
-0.7959 <s> -0.2253
-1.6990 APNA -0.2923
-1.6990 COLLEGE -0.2253
-1.6990 GOOGLE -0.2253
-1.6990 OPEN -0.2253
-1.6990 SEARCH -0.2253
-1.6990 SHUTDOWN -0.2253
-1.6990 SWITCH -0.2253
-1.6990 TAB -0.2253
-1.6990 YOUTUBE -0.2253

\2-grams:
-1.2041 <s> APNA 0.0000
-1.2041 <s> GOOGLE 0.0000
-1.2041 <s> OPEN 0.0000
-1.2041 <s> SEARCH 0.0000
-1.2041 <s> SHUTDOWN 0.0000
-1.2041 <s> SWITCH 0.0000
-1.2041 <s> TAB 0.0000
-1.2041 <s> YOUTUBE 0.0000
-0.3010 APNA COLLEGE 0.0000
-0.3010 COLLEGE </s> -0.3010
-0.3010 GOOGLE </s> -0.3010
-0.3010 OPEN </s> -0.3010
-0.3010 SEARCH </s> -0.3010
-0.3010 SHUTDOWN </s> -0.3010
-0.3010 SWITCH </s> -0.3010
-0.3010 TAB </s> -0.3010
-0.3010 YOUTUBE </s> -0.3010

\3-grams:
-0.3010 <s> APNA COLLEGE
-0.3010 <s> GOOGLE </s>
-0.3010 <s> OPEN </s>
-0.3010 <s> SEARCH </s>
-0.3010 <s> SHUTDOWN </s>
-0.3010 <s> SWITCH </s>
-0.3010 <s> TAB </s>
-0.3010 <s> YOUTUBE </s>
-0.3010 APNA COLLEGE </s>

\end\
